tree
version=v3
num_class=1
num_tree_per_iteration=1
label_index=0
max_feature_idx=16
objective=binary sigmoid:1
feature_names=fprop_1km fprop_10km spp_rich live_basal dead_basal total_basal oak_prop can_clos_prop grass_prop green_prop litter_prop shrub_dens dist_edge nearest_patch_size mid_sd mid_dens_2.5m mid_dens_5m
feature_infos=[0.236117208:0.74838494099999997] [0.187869334:0.35943798300000002] [0:11] [0:38] [0:19] [0:40] [0:1] [0:1] [0:1] [0:1] [0:1] [0:7.8525641029999997] [0:672.50762399999996] [17424194.649999999:45028657.270000003] [0:0.51639777899999995] [0:0.93976079999999995] [0:1]
tree_sizes=538 446 554 553 552 551 449 549 551 553

Tree=0
num_leaves=4
num_cat=0
split_feature=1 5 5
split_gain=34.4407 13.8624 13.2158
threshold=0.27769825800000009 20.500000000000004 13.500000000000002
decision_type=2 2 2
left_child=1 -1 -2
right_child=2 -3 -4
leaf_value=-0.014754098360655735 -0.0043478260869565192 0.00051282051282051282 0.013442622950819673
leaf_weight=15.250000000000002 5.7500000000000027 9.7499999999999982 15.249999999999998
leaf_count=61 23 39 61
internal_value=0 -0.0088 0.00857143
internal_weight=0 25 21
internal_count=184 100 84
is_linear=0
shrinkage=0.01


Tree=1
num_leaves=3
num_cat=0
split_feature=0 1
split_gain=26.1226 20.0042
threshold=0.47343833900000004 0.27769825800000009
decision_type=2 2
left_child=-1 -2
right_child=1 -3
leaf_value=-0.019902314135309452 -0.0036338682542573298 0.01060204030618731
leaf_weight=5.749803587794303 21.49929204583168 18.249387934803963
leaf_count=23 86 73
internal_value=0 0.00290211
internal_weight=0 39.7487
internal_count=182 159
is_linear=0
shrinkage=0.01


Tree=2
num_leaves=4
num_cat=0
split_feature=15 11 7
split_gain=20.2927 14.1244 1.74621
threshold=0.29941944200000009 2.1233974360000007 0.82500000000000007
decision_type=2 2 2
left_child=2 -2 -1
right_child=1 -3 -4
leaf_value=-0.015016287096917982 0.0090960518801965259 -0.004340646387989624 -0.0072900560933140271
leaf_weight=6.2491870373487455 20.248308166861534 12.748868629336355 5.4995664060115814
leaf_count=25 81 51 22
internal_value=0 0.00390462 -0.0113997
internal_weight=0 32.9972 11.7488
internal_count=179 132 47
is_linear=0
shrinkage=0.01


Tree=3
num_leaves=4
num_cat=0
split_feature=12 10 2
split_gain=61.7183 7.18432 2.06309
threshold=73.634687000000028 0.4250000000000001 3.5000000000000004
decision_type=2 2 2
left_child=2 -2 -1
right_child=1 -3 -4
leaf_value=-0.019720490292529678 -0.0035517506007416845 0.0089410056118402054 -0.011915348643284827
leaf_weight=10.496746972203253 5.4995471686124793 28.246613830327988 4.9995335340499869
leaf_count=42 22 113 20
internal_value=0 0.00690509 -0.0172023
internal_weight=0 33.7462 15.4963
internal_count=197 135 62
is_linear=0
shrinkage=0.01


Tree=4
num_leaves=4
num_cat=0
split_feature=10 1 5
split_gain=34.5326 21.7641 7.64706
threshold=0.4250000000000001 0.27769825800000009 11.500000000000002
decision_type=2 2 2
left_child=2 -2 -1
right_child=1 -3 -4
leaf_value=-0.019593687700803213 -0.0038116263035994974 0.013324067098783834 -0.0050325169426571675
leaf_weight=7.7458409518003446 12.999100580811502 17.245146155357361 6.7492201328277588
leaf_count=31 52 69 27
internal_value=0 0.00595908 -0.0128137
internal_weight=0 30.2442 14.4951
internal_count=179 121 58
is_linear=0
shrinkage=0.01


Tree=5
num_leaves=4
num_cat=0
split_feature=6 13 12
split_gain=36.2344 21.411 2.52863
threshold=0.22649572650000002 36299267.515000008 34.087714500000011
decision_type=2 2 2
left_child=2 -2 -1
right_child=1 -3 -4
leaf_value=-0.019351029896490516 0.010903112874776655 -0.0065201366016360588 -0.0099650719858920614
leaf_weight=6.7418608516454679 21.491902232170105 10.498351022601129 4.9982948899269104
leaf_count=27 86 42 20
internal_value=0 0.00518527 -0.015355
internal_weight=0 31.9903 11.7402
internal_count=175 128 47
is_linear=0
shrinkage=0.01


Tree=6
num_leaves=3
num_cat=0
split_feature=3 1
split_gain=48.7309 22.9727
threshold=9.5000000000000018 0.28513952200000009
decision_type=2 2
left_child=-1 -2
right_child=1 -3
leaf_value=-0.019400223334201872 -0.00095788871450841961 0.016393104072538033
leaf_weight=9.7342991530895215 18.496637761592869 12.989415749907492
leaf_count=39 74 52
internal_value=0 0.00620018
internal_weight=0 31.4861
internal_count=165 126
is_linear=0
shrinkage=0.01


Tree=7
num_leaves=4
num_cat=0
split_feature=10 11 11
split_gain=52.4354 5.6234 2.15556
threshold=0.52500000000000013 2.1233974360000007 1.3755341880000003
decision_type=2 2 2
left_child=2 -2 -1
right_child=1 -3 -4
leaf_value=-0.010535041264079151 0.012146453015257684 0.0017721855571315528 -0.018069407409195614
leaf_weight=7.9848172664642316 18.735453397035602 7.2456601411104193 7.24046990275383
leaf_count=32 75 29 29
internal_value=0 0.00925326 -0.0141181
internal_weight=0 25.9811 15.2253
internal_count=165 104 61
is_linear=0
shrinkage=0.01


Tree=8
num_leaves=4
num_cat=0
split_feature=13 5 1
split_gain=24.2147 22.3069 11.1744
threshold=36299267.515000008 9.5000000000000018 0.24603833750000004
decision_type=2 2 2
left_child=1 -1 -2
right_child=2 -3 -4
leaf_value=-0.0085016889350464555 0.0029669520251914849 0.013703088893784961 -0.014301132548511616
leaf_weight=5.4898156672716167 7.495929613709448 25.722661107778549 7.4939222931861877
leaf_count=22 30 103 30
internal_value=0 0.0097976 -0.00566593
internal_weight=0 31.2125 14.9899
internal_count=185 125 60
is_linear=0
shrinkage=0.01


Tree=9
num_leaves=4
num_cat=0
split_feature=10 10 5
split_gain=35.1401 10.0041 5.04849
threshold=0.52500000000000013 0.97500000000000009 11.500000000000002
decision_type=2 2 2
left_child=2 -2 -1
right_child=1 -3 -4
leaf_value=-0.018915788886874698 -0.00091672365789825132 0.012103608353036692 -0.0077678804630792776
leaf_weight=10.213007986545565 14.988516807556152 9.7331531196832657 6.7453492879867545
leaf_count=41 60 39 27
internal_value=0 0.0042095 -0.0144816
internal_weight=0 24.7217 16.9584
internal_count=167 99 68
is_linear=0
shrinkage=0.01


end of trees

feature_importances:
fprop_10km=5
total_basal=5
litter_prop=5
shrub_dens=3
dist_edge=2
nearest_patch_size=2
fprop_1km=1
spp_rich=1
live_basal=1
oak_prop=1
can_clos_prop=1
mid_dens_2.5m=1

parameters:
[boosting: gbdt]
[objective: binary]
[metric: binary_logloss]
[tree_learner: serial]
[device_type: cpu]
[data: ]
[valid: ]
[num_iterations: 10]
[learning_rate: 0.01]
[num_leaves: 4]
[num_threads: 0]
[deterministic: 0]
[force_col_wise: 0]
[force_row_wise: 0]
[histogram_pool_size: -1]
[max_depth: 2]
[min_data_in_leaf: 20]
[min_sum_hessian_in_leaf: 0.001]
[bagging_fraction: 0.3]
[pos_bagging_fraction: 1]
[neg_bagging_fraction: 1]
[bagging_freq: 1]
[bagging_seed: 3]
[feature_fraction: 0.3]
[feature_fraction_bynode: 1]
[feature_fraction_seed: 2]
[extra_trees: 0]
[extra_seed: 6]
[early_stopping_round: 0]
[first_metric_only: 0]
[max_delta_step: 0]
[lambda_l1: 0]
[lambda_l2: 0]
[linear_lambda: 0]
[min_gain_to_split: 0]
[drop_rate: 0.1]
[max_drop: 50]
[skip_drop: 0.5]
[xgboost_dart_mode: 0]
[uniform_drop: 0]
[drop_seed: 4]
[top_rate: 0.2]
[other_rate: 0.1]
[min_data_per_group: 100]
[max_cat_threshold: 32]
[cat_l2: 10]
[cat_smooth: 10]
[max_cat_to_onehot: 4]
[top_k: 20]
[monotone_constraints: ]
[monotone_constraints_method: basic]
[monotone_penalty: 0]
[feature_contri: ]
[forcedsplits_filename: ]
[refit_decay_rate: 0.9]
[cegb_tradeoff: 1]
[cegb_penalty_split: 0]
[cegb_penalty_feature_lazy: ]
[cegb_penalty_feature_coupled: ]
[path_smooth: 0]
[interaction_constraints: ]
[verbosity: -1]
[saved_feature_importance_type: 0]
[linear_tree: 0]
[max_bin: 255]
[max_bin_by_feature: ]
[min_data_in_bin: 8]
[bin_construct_sample_cnt: 200000]
[data_random_seed: 1]
[is_enable_sparse: 1]
[enable_bundle: 1]
[use_missing: 1]
[zero_as_missing: 0]
[feature_pre_filter: 1]
[pre_partition: 0]
[two_round: 0]
[header: 0]
[label_column: ]
[weight_column: ]
[group_column: ]
[ignore_column: ]
[categorical_feature: ]
[forcedbins_filename: ]
[precise_float_parser: 0]
[objective_seed: 5]
[num_class: 1]
[is_unbalance: 0]
[scale_pos_weight: 1]
[sigmoid: 1]
[boost_from_average: 1]
[reg_sqrt: 0]
[alpha: 0.9]
[fair_c: 1]
[poisson_max_delta_step: 0.7]
[tweedie_variance_power: 1.5]
[lambdarank_truncation_level: 30]
[lambdarank_norm: 1]
[label_gain: ]
[eval_at: ]
[multi_error_top_k: 1]
[auc_mu_weights: ]
[num_machines: 1]
[local_listen_port: 12400]
[time_out: 120]
[machine_list_filename: ]
[machines: ]
[gpu_platform_id: -1]
[gpu_device_id: -1]
[gpu_use_dp: 0]
[num_gpu: 1]

end of parameters
